tree
version=v4
num_class=1
num_tree_per_iteration=1
label_index=0
max_feature_idx=6
objective=binary sigmoid:1
feature_names=speed_form_proba pace_scenario_proba sequence_proba connections_proba market_proba field_size distance_furlongs
feature_infos=[0.057796058031186842:0.17051681537638488] none none [-0.10059560176729437:0.26058139480775355] [-0.094943502710717914:0.010905345678154932] [1:40] [4.9710000000000001:36]
tree_sizes=1713 1761 1757 1770 1769 1762 1769 1759 1766 1758 1761 1759 1764 1764 1769 1770 1775 1769

Tree=0
num_leaves=15
num_cat=0
split_feature=3 0 0 3 0 5 3 0 3 5 3 0 0 0
split_gain=879.835 763.343 243.589 182.015 132.795 94.3584 64.9684 62.1802 57.1478 97.0041 54.5011 44.9199 39.3966 36.9857
threshold=-0.0025855734642482721 0.087624680443069133 0.094929663975238526 0.023839778353902826 0.075334243379933982 5.5000000000000009 0.02602800590592062 0.11158947728554987 -0.034158672748589074 6.5000000000000009 -0.01477918075176411 0.10242253340963775 0.079351244019211314 0.099401647849695143
decision_type=2 2 2 2 2 2 2 2 2 2 2 2 2 2
left_child=2 4 10 5 -2 -3 -6 -5 -4 13 -1 -7 -12 -10
right_child=1 3 8 7 6 11 -8 -9 9 -11 12 -13 -14 -15
leaf_value=-2.3971930853246897 -2.3812687060943576 -2.2790659717503581 -2.3710509881304067 -2.2699028244521058 -2.3545482626954035 -2.3689697058746608 -2.3233227562737651 -2.2060312027529876 -2.3406699216826241 -2.3662483743544653 -2.3916450328871366 -2.3146965485836359 -2.3610225481916349 -2.2805013428141607
leaf_weight=993.62605978548527 324.04627899825573 122.12958247959614 118.3377196341753 181.06145086884499 447.36081861704588 66.120608367025852 261.40154490619898 67.147571220993996 41.473499871790409 94.559579707682133 193.30600797384977 79.866111181676388 226.08982215821743 79.471125468611717
leaf_count=12578 4102 1546 1498 2292 5663 837 3309 850 525 1197 2447 1011 2862 1006
internal_value=-2.35745 -2.33007 -2.38175 -2.28075 -2.35498 -2.31068 -2.34287 -2.24997 -2.3435 -2.32841 -2.3908 -2.33885 -2.37537 -2.29965
internal_weight=3296 1549.13 1746.86 516.325 1032.81 268.116 708.762 248.209 333.842 215.504 1413.02 145.987 419.396 120.945
internal_count=41723 19610 22113 6536 13074 3394 8972 3142 4226 2728 17887 1848 5309 1531
is_linear=0
shrinkage=1


Tree=1
num_leaves=15
num_cat=0
split_feature=3 0 0 3 0 5 3 3 3 5 0 0 0 6
split_gain=793.247 633.224 228.489 135.985 120.751 75.8283 56.2521 53.1301 50.6174 82.77 41.9959 39.2218 37.3497 34.8406
threshold=-0.0025855734642482721 0.087624680443069133 0.094929663975238526 0.023839778353902826 0.075334243379933982 5.5000000000000009 0.02602800590592062 -0.01477918075176411 -0.034158672748589074 6.5000000000000009 0.11158947728554987 0.10242253340963775 0.079351244019211314 14.390950000000002
decision_type=2 2 2 2 2 2 2 2 2 2 2 2 2 2
left_child=2 4 7 5 -2 -3 13 -1 -4 -10 -5 -7 -9 -6
right_child=1 3 8 10 6 11 -8 12 9 -11 -12 -13 -14 -15
leaf_value=-0.039055036555138034 -0.023097889607964658 0.070028617849087468 -0.013088673875093847 0.077519795393974605 0.0096014628138727919 -0.011080402694138989 0.031549810370501669 -0.033459973851430895 0.052614600346423936 -0.0084360758266498869 0.12825171440012026 0.039381498486905919 -0.0034037657242165205 -0.02491861018610551
leaf_weight=961.38180816173553 317.71227669715881 130.24505649507046 117.01275627315044 194.53762122988701 362.12299504876137 65.493196964263916 268.86067785322666 187.89918043464422 126.70523778349161 93.873758979141712 75.962401553988457 82.728844329714775 225.42337556183338 86.314031183719635
leaf_count=12578 4102 1546 1498 2292 4573 837 3309 2447 1531 1197 850 1011 2862 1090
internal_value=-1.51374e-05 0.0254455 -0.0235733 0.0685898 0.00234207 0.0428439 0.0136921 -0.0326018 0.0131309 0.0270216 0.0938355 0.0174505 -0.0173041 0.00275562
internal_weight=3296.27 1583.98 1712.3 548.967 1035.01 278.467 717.298 1374.7 337.592 220.579 270.5 148.222 413.323 448.437
internal_count=41723 19610 22113 6536 13074 3394 8972 17887 4226 2728 3142 1848 5309 5663
is_linear=0
shrinkage=0.05


Tree=2
num_leaves=15
num_cat=0
split_feature=3 0 0 3 0 5 3 5 3 0 3 0 0 0
split_gain=717.083 566.985 208.28 133.077 82.263 67.3387 55.7265 48.1932 69.37 46.8451 31.2405 41.9084 30.652 26.0503
threshold=-0.00671125059354715 0.084938936536150672 0.099401647849695143 0.023839778353902826 0.074934557042156749 8.5000000000000018 0.029026581357451734 7.5000000000000009 -0.033730700836820303 0.11019731328016499 -0.018751677988179994 0.079469153053644978 0.10095437008171808 0.090857199168059941
decision_type=2 2 2 2 2 2 2 2 2 2 2 2 2 2
left_child=2 4 10 5 -2 13 -6 8 -4 -5 -1 -12 -7 -3
right_child=1 3 7 9 6 12 -8 -9 -10 -11 11 -13 -14 -15
leaf_value=-0.03897980768780606 -0.023798931567425706 0.029063499917235964 -0.0035566799274006919 0.063381333504361703 -0.0027993292027385878 -0.014561341811376867 0.027872469200195274 -0.016948372728557499 0.059981890278422836 0.10933605823771822 -0.038392410515415559 -0.007341431966627331 0.031271618280740175 0.06124762667693965
leaf_weight=839.37025282531977 323.00167091190815 126.10869681835175 76.722469858825207 250.5808869600296 482.48108765482903 79.17632345110178 208.17752446234226 68.571078792214394 91.098465301096439 90.022229909896851 202.44489803165197 234.43510540574789 59.597123883664608 163.84130305796862
leaf_count=11293 4258 1525 991 2821 6096 1020 2503 882 1057 916 2720 3025 718 1898
internal_value=-3.1348e-05 0.0214238 -0.0253083 0.0536393 -0.00316978 0.0344596 0.00657961 0.0175093 0.0316716 0.0769334 -0.0332765 -0.0220017 0.00552492 0.0479797
internal_weight=3295.63 1782.99 1512.64 769.327 1013.66 428.723 690.659 236.392 167.821 340.603 1276.25 436.88 138.773 289.95
internal_count=41723 21755 19968 8898 12857 5161 8599 2930 2048 3737 17038 5745 1738 3423
is_linear=0
shrinkage=0.05


Tree=3
num_leaves=15
num_cat=0
split_feature=3 0 0 4 0 3 5 3 4 3 3 5 4 0
split_gain=650.839 455.171 202.131 91.1718 85.7848 79.4943 56.552 50.0361 43.1455 42.5389 41.2073 65.773 34.3992 33.3145
threshold=-0.0025855734642482721 0.085779934060546389 0.094929663975238526 -0.02627356696432084 0.074934557042156749 0.023839778353902826 5.5000000000000009 -0.01477918075176411 -0.02627356696432084 0.026601353774930388 -0.028816603386936184 6.5000000000000009 0.0055158576333241846 0.079351244019211314
decision_type=2 2 2 2 2 2 2 2 2 2 2 2 2 2
left_child=2 4 7 -3 -2 6 -5 -1 -6 -10 -4 -12 -8 -9
right_child=1 3 10 5 8 -7 12 13 9 -11 11 -13 -14 -15
leaf_value=-0.037715176226613301 -0.022758559786360807 -0.010823752817711297 -0.0078751374030875763 0.059263458371964485 -0.028511247526450841 0.075759590115732259 0.036785211067064331 -0.032063232618974848 0.0033087112157933491 0.030465740517249706 0.051292705066010094 -0.0064437959603857245 -0.0099319079451532285 -0.0032553641185090335
leaf_weight=902.22275161743164 287.9431254863739 50.268265031278133 149.26895876973867 164.1372596770525 62.272627763450146 321.5290333032608 84.820512369275093 178.15502561628819 376.89304734021425 229.98501831293106 109.9520838111639 84.643392041325569 67.138194903731346 224.81911834329367
leaf_count=12578 3866 555 1909 1818 769 3304 970 2447 4755 2704 1233 1084 869 2862
internal_value=-4.38779e-05 0.0221749 -0.0222078 0.0530396 -0.000168823 0.0581194 0.0392757 -0.0311684 0.0096485 0.0137651 0.0117629 0.0266467 0.0164858 -0.0162282
internal_weight=3294.05 1644.99 1649.06 687.893 957.094 637.625 316.096 1305.2 669.151 606.878 343.864 194.595 151.959 402.974
internal_count=41723 19610 22113 7516 12094 6961 3657 17887 8228 7459 4226 2317 1839 5309
is_linear=0
shrinkage=0.05


Tree=4
num_leaves=15
num_cat=0
split_feature=3 0 0 4 3 0 5 4 0 5 3 3 3 0
split_gain=592.547 429.202 185.513 103.766 88.7367 54.0879 51.1773 44.5329 42.3226 40.2081 52.5822 37.6831 30.1089 38.8973
threshold=-0.00671125059354715 0.083552657993639687 0.099401647849695143 -0.02438873225440873 0.02602800590592062 0.074934557042156749 5.5000000000000009 0.0055158576333241846 0.090112392477646019 7.5000000000000009 -0.033730700836820303 0.034416707910429598 -0.018751677988179994 0.079469153053644978
decision_type=2 2 2 2 2 2 2 2 2 2 2 2 2 2
left_child=2 5 12 -3 6 -2 8 -8 -5 10 -4 -7 -1 -14
right_child=1 3 9 4 -6 11 7 -9 -10 -11 -12 -13 13 -15
leaf_value=-0.037685292266053348 -0.022368851792844247 -0.013888139074897452 -0.0030496940192536069 0.027565874403259024 0.066205843417409191 -0.0041823998300674903 0.035042510007567994 -0.010684639892605055 0.067421030331678025 -0.016143920613661215 0.051567026508913441 0.024158688065870723 -0.037109799711182501 -0.006630829083732988
leaf_weight=788.62361715734005 310.42064714431763 72.752432622015476 75.996472001075745 155.38865343481302 364.41457676142454 449.13235218077898 107.30018369853497 97.799763754010201 130.07231112569571 67.224689438939095 98.179096482694149 153.23981543630362 190.44892884790897 231.20772510021925
leaf_count=11293 4258 837 991 1831 3606 5659 1193 1255 1352 882 1057 1764 2720 3025
internal_value=-6.34733e-05 0.0187537 -0.0239034 0.0426088 0.0474691 -0.00559178 0.0330229 0.0135026 0.0465741 0.0158589 0.0283165 0.00316693 -0.0318669 -0.0206708
internal_weight=3292.2 1840.52 1451.68 927.728 854.975 912.793 490.561 205.1 285.461 241.4 174.176 602.372 1210.28 421.657
internal_count=41723 21755 19968 10074 9237 11681 5631 2448 3183 2930 2048 7423 17038 5745
is_linear=0
shrinkage=0.05


Tree=5
num_leaves=15
num_cat=0
split_feature=3 0 0 0 4 5 3 3 0 5 3 4 3 0
split_gain=538.31 372.896 173.505 100.911 77.9082 68.0475 50.4344 42.3962 39.5087 35.7132 44.944 31.7427 29.4031 37.2055
threshold=-0.00671125059354715 0.082433135665639437 0.099401647849695143 0.11019731328016499 -0.02627356696432084 3.5000000000000004 0.013062622743485077 0.040415794364244514 0.074934557042156749 7.5000000000000009 -0.033730700836820303 0.0069337769286575918 -0.018751677988179994 0.079469153053644978
decision_type=2 2 2 2 2 2 2 2 2 2 2 2 2 2
left_child=2 8 12 4 -3 7 -7 11 -2 10 -4 -6 -1 -14
right_child=1 3 9 -5 5 6 -8 -9 -10 -11 -12 -13 13 -15
leaf_value=-0.037003573347277219 -0.021677086645085199 -0.020518043069442188 -0.0029137366020308771 0.069920237279574401 0.05744903366160057 -0.01517267136913579 0.028412772274525135 0.079857904628291926 0.00087038805826545284 -0.015591953617458505 0.04720270203907851 0.027100746067541676 -0.036433691892084161 -0.006341397058266438
leaf_weight=763.72376903146505 304.62009084224701 67.874254055321217 75.803709715604782 191.80303343385458 141.81759922206402 91.27047049254179 215.21134635806084 76.709230080246925 520.5724466368556 66.324605032801628 102.24558481574059 257.04730211943388 184.52816837280989 229.93390247970819
leaf_count=11293 4258 805 991 1810 1396 1134 2237 769 6407 882 1057 2939 2720 3025
internal_value=-7.80876e-05 0.0175587 -0.0232045 0.037376 0.0296659 0.034124 0.0153978 0.0459062 -0.00753344 0.0148963 0.0263691 0.0384688 -0.0311367 -0.0200138
internal_weight=3289.49 1866.93 1422.56 1041.73 849.93 782.056 306.482 475.574 825.193 244.374 178.049 398.865 1178.19 414.462
internal_count=41723 21755 19968 11090 9280 8475 3371 5104 10665 2930 2048 4335 17038 5745
is_linear=0
shrinkage=0.05


Tree=6
num_leaves=15
num_cat=0
split_feature=3 0 0 4 3 5 4 0 5 3 5 3 3 0
split_gain=489.529 325.611 162.231 88.3124 72.4314 37.7307 39.8285 38.3731 34.9493 34.9877 32.2715 38.8556 28.6748 35.5515
threshold=-0.00671125059354715 0.082103215989108483 0.099401647849695143 -0.02627356696432084 0.02602800590592062 5.5000000000000009 0.0055158576333241846 0.090112392477646019 9.5000000000000018 0.022786578500029447 5.5000000000000009 -0.034158672748589074 -0.018751677988179994 0.079469153053644978
decision_type=2 2 2 2 2 2 2 2 2 2 2 2 2 2
left_child=2 8 12 -3 5 7 -7 -5 9 -2 11 -4 -1 -14
right_child=1 3 10 4 -6 6 -8 -9 -10 -11 -12 -13 13 -15
leaf_value=-0.036319767753174623 -0.010276027944676643 -0.016625918273539451 0.00022950811441265853 0.02192021823143846 0.053291165345653348 0.029387443340911135 -0.012154192094674136 0.05578275218870446 -0.025587594535484627 0.015344167219198991 -0.006523268909536948 0.05238546030502679 -0.035756420809748349 -0.0060632021127017847
leaf_weight=739.90104075521231 393.58554926514626 77.299731805920601 63.896119870245457 219.26707343757153 438.0084106773138 114.74163500964642 107.31171436607838 143.10034623742104 202.87706065177917 195.23440536856651 107.17772111296654 76.077829949557781 178.86185606569052 228.72081799805164
leaf_count=11293 5229 916 839 2534 4047 1201 1386 1352 2676 2414 1348 743 2720 3025
internal_value=-8.68257e-05 0.0164672 -0.0225163 0.0340096 0.0379001 0.0260107 0.00948606 0.0358699 -0.00796102 -0.0017235 0.0140048 0.0294061 -0.0304091 -0.0193691
internal_weight=3286.06 1891.43 1394.64 1099.73 1022.43 584.421 222.053 362.367 791.697 588.82 247.152 139.974 1147.48 407.583
internal_count=41723 21755 19968 11436 10520 6473 2587 3886 10319 7643 2930 1582 17038 5745
is_linear=0
shrinkage=0.05


Tree=7
num_leaves=15
num_cat=0
split_feature=3 0 0 0 3 4 5 0 3 0 0 6 5 3
split_gain=447.465 298.455 133.299 77.1854 68.9086 46.392 39.0417 39.6862 37.1546 33.0033 32.7415 30.4537 29.3497 43.2547
threshold=-0.010633434291567696 0.087472387146571948 0.093811208074132416 0.074934557042156749 0.012674989831110388 -0.02627356696432084 5.5000000000000009 0.097664791720696101 0.02602800590592062 0.11670295025075902 0.10863218830722114 14.266700000000002 3.5000000000000004 -0.028816603386936184
decision_type=2 2 2 2 2 2 2 2 2 2 2 2 2 2
left_child=2 3 -1 -2 6 -5 7 -3 11 12 -6 -7 13 -4
right_child=1 4 9 5 10 8 -8 -9 -10 -11 -12 -13 -14 -15
leaf_value=-0.033966961901370156 -0.022064105487843662 0.018408059869868213 -0.016260980990119609 -0.028681137293866527 0.039462288173965493 0.0071175117710838703 4.7767582634455884e-05 0.06889967473444987 0.023971829641706903 0.029585767636613466 0.06903525164770051 -0.024024870331728763 -0.034795981959042419 0.03365809176962288
leaf_weight=896.65046082437038 327.14294650405645 133.49071037769318 98.970620229840279 82.628290623426437 333.67312294244766 465.96781055629253 147.00598559528589 53.5744613930583 287.91154956072569 84.665648654103279 152.20884981006384 89.230681695044041 59.618627354502678 69.610866263508797
leaf_count=13932 4735 1397 1341 1071 3140 5838 1711 489 3094 981 1247 1178 798 771
internal_value=-9.82822e-05 0.0139945 -0.0242083 -0.0013768 0.0373477 0.00601306 0.0194424 0.0342858 0.00956228 0.00385368 0.0493352 0.0019426 -0.00612295 0.00472743
internal_weight=3282.35 2072.83 1209.52 1252.88 819.953 925.738 334.071 187.065 843.11 312.866 485.882 555.198 228.2 168.581
internal_count=41723 23900 17823 15916 7984 11181 3597 1886 10110 3891 4387 7016 2910 2112
is_linear=0
shrinkage=0.05


Tree=8
num_leaves=15
num_cat=0
split_feature=3 0 0 4 0 6 3 3 0 0 5 3 3 0
split_gain=408.411 268.153 126.189 86.5616 72.1301 50.0102 41.1336 40.5306 36.1087 29.3523 27.4854 38.6457 22.3835 20.6425
threshold=-0.010633434291567696 0.082103215989108483 0.093811208074132416 -0.02438873225440873 0.10863218830722114 15.434850000000003 0.013895180435588657 0.040415794364244514 0.072349181516690897 0.11670295025075902 3.5000000000000004 -0.028816603386936184 0.010218314269300735 0.086581151707465373
decision_type=2 2 2 2 2 2 2 2 2 2 2 2 2 2
left_child=2 8 -1 -3 5 7 -7 13 -2 10 11 -4 -10 -5
right_child=1 3 9 4 -6 6 -8 -9 12 -11 -12 -13 -14 -15
leaf_value=-0.033258414579573979 -0.025549063901000219 -0.018513065690845612 -0.015694359563167445 0.014935668282868181 0.056012898443550313 -0.016093893998381195 0.021227366801580896 0.064007253323786942 -0.012723234983883135 0.027548820629127377 -0.034118698839725389 0.031282686454490463 0.0060850784674451805 0.036148524431599154
leaf_weight=870.73622946441174 221.02605763077736 89.751105427742004 97.631881177425385 206.69550716131926 238.76572646945715 105.36339423805475 220.71657162904739 90.795276515185833 278.49076273292303 86.694872632622719 57.905108377337456 71.481341190636158 353.24162072688341 288.71899307519197
leaf_count=13932 3259 1074 1341 2390 2039 1335 2126 809 3754 981 798 771 4348 2766
internal_value=-0.000103472 0.0131634 -0.02351 0.0279546 0.0316422 0.0249933 0.00910714 0.0336783 -0.00839601 0.0036448 -0.00588074 0.00449018 -0.00224112 0.0275358
internal_weight=3278.01 2093.57 1184.45 1240.81 1151.06 912.29 326.08 586.21 852.758 313.713 227.018 169.113 631.732 495.415
internal_count=41723 23900 17823 12539 11465 9426 3461 5965 11361 3891 2910 2112 8102 5156
is_linear=0
shrinkage=0.05


Tree=9
num_leaves=15
num_cat=0
split_feature=3 0 0 0 4 3 5 5 3 3 0 6 3 4
split_gain=373.38 204.29 140.47 57.7459 42.8279 39.9482 38.1427 35.653 35.4499 29.1265 27.4721 39.6718 36.4695 25.439
threshold=-0.0025855734642482721 0.082103215989108483 0.094929663975238526 0.11783080533399558 -0.02438873225440873 -0.015033931024676648 3.5000000000000004 9.5000000000000018 0.013062622743485077 0.040415794364244514 0.12861181281042508 15.434850000000003 -0.034158672748589074 -0.029951211508942675
decision_type=2 2 2 2 2 2 2 2 2 2 2 2 2 2
left_child=2 7 5 4 -3 -1 9 13 -8 -6 11 12 -4 -2
right_child=1 3 10 -5 6 -7 8 -9 -10 -11 -12 -13 -14 -15
leaf_value=-0.033863240827168566 -0.031041596704735559 -0.013169907765578519 -0.010892254161161784 0.060134597759029289 0.029975816569699987 -0.013824938278089911 -0.010655358725461243 -0.023871703932103298 0.023992120528110325 0.061323163123673412 0.0387041247801767 -0.018300027061470173 0.035441034166387025 0.0049827322186932919
leaf_weight=747.11332205682993 49.614806152880192 67.099382601678371 65.827583655714989 128.66192205995321 395.90873467177153 387.33412264287472 95.408002212643623 187.29127942025661 288.21263495087624 96.310371100902557 58.057559840381145 128.13431166112423 105.6985045298934 472.77992935478687
leaf_count=12448 682 809 915 1006 3861 5439 1147 2557 2639 816 615 1629 1067 6093
internal_value=-0.000109398 0.0153269 -0.0185263 0.0290575 0.0245223 -0.0271123 0.0274683 -0.00546394 0.0153489 0.0366644 0.00870104 0.00234831 0.0178546 0.00129944
internal_weight=3273.45 1781.29 1492.17 1071.6 942.939 1134.45 875.84 709.686 383.621 492.219 357.718 299.66 171.526 522.395
internal_count=41723 19610 22113 10278 9272 17887 8463 9332 3786 4677 4226 3611 1982 6775
is_linear=0
shrinkage=0.05


Tree=10
num_leaves=15
num_cat=0
split_feature=3 0 0 4 0 0 5 3 4 3 0 5 3 3
split_gain=342.662 212.677 112.57 60.681 48.2471 42.2166 38.9521 32.6973 26.5021 26.0633 24.538 24.5257 32.0571 20.046
threshold=-0.010633434291567696 0.083436556929354352 0.093811208074132416 -0.02438873225440873 0.10863218830722114 0.074934557042156749 3.5000000000000004 0.013062622743485077 -0.02627356696432084 0.034416707910429598 0.11670295025075902 3.5000000000000004 -0.028816603386936184 0.040415794364244514
decision_type=2 2 2 2 2 2 2 2 2 2 2 2 2 2
left_child=2 5 -1 -3 6 -2 13 -8 -7 -10 11 12 -4 -5
right_child=1 3 10 4 -6 8 7 -9 9 -11 -12 -13 -14 -15
leaf_value=-0.031875136212491433 -0.020529069734897609 -0.015702009107687456 -0.014927496675716523 0.026486785222478326 0.048144163951955386 -0.029618812238074395 -0.015999222054918043 0.019100331177606854 -0.0012693871368086179 0.022534701415469365 0.024544023241862126 -0.033076355409379747 0.027543568773170896 0.053793487968147757
leaf_weight=823.40008962526917 313.71143298223615 78.035034999251366 95.820737771689892 439.38945866376162 254.79030541330576 56.485843855887651 90.053479082882404 218.12782415747643 446.06018859893084 149.70885636657476 89.817288443446159 55.393865793943405 74.568882383406162 83.38357974588871
leaf_count=13932 4735 943 1341 4276 2039 768 1174 2025 5675 1602 981 798 771 663
internal_value=-0.000112988 0.01172 -0.0221933 0.0260695 0.0291299 -0.00561321 0.0230466 0.00875223 0.00166238 0.00485003 0.00316967 -0.00568065 0.00391477 0.0313106
internal_weight=3268.75 2129.75 1139 1163.78 1085.74 965.966 830.954 308.181 652.255 595.769 315.601 225.783 170.39 522.773
internal_count=41723 23900 17823 11120 10177 12780 8138 3199 8045 7277 3891 2910 2112 4939
is_linear=0
shrinkage=0.05


Tree=11
num_leaves=15
num_cat=0
split_feature=3 0 0 0 3 4 6 5 0 3 0 5 3 0
split_gain=312.85 189.187 106.378 56.2144 42.3744 35.4542 27.5074 27.2946 28.7018 23.8153 22.2224 22.8908 29.2051 16.3618
threshold=-0.010633434291567696 0.087472387146571948 0.09358239764976313 0.074934557042156749 0.012674989831110388 -0.043884799126144743 12.962250000000003 5.5000000000000009 0.097664791720696101 0.044791841323347036 0.11670295025075902 3.5000000000000004 -0.028816603386936184 0.10863218830722114
decision_type=2 2 2 2 2 2 2 2 2 2 2 2 2 2
left_child=2 3 -1 -2 7 -5 9 8 -3 -7 11 12 -4 -6
right_child=1 4 10 5 13 6 -8 -9 -10 -11 -12 -13 -14 -15
leaf_value=-0.031248824385746672 -0.019869206076127452 0.013347815923786985 -0.014630047156950541 -0.034151609736929538 0.030472180782894855 0.0077856812902155946 -0.0096550372302629927 -0.0014108462666867323 0.054037067806859518 0.034636485487169959 0.022946419587525389 -0.032489272693127819 0.025401457242271403 0.05031198953073171
leaf_weight=797.00216545164585 308.2313596829772 142.3288060426712 96.5318543612957 50.8287643045187 364.40372830629349 610.46302676945925 191.98448789864779 150.26153398305178 60.64886412769556 91.597868360579014 91.56852013617754 54.094743121415377 77.767392966896296 175.96966171264648
leaf_count=13867 4735 1397 1375 709 3140 7270 2315 1711 489 887 981 802 798 1247
internal_value=-0.000118346 0.0110432 -0.0215236 -0.0015059 0.0285511 0.00455752 0.00693593 0.0147805 0.0265124 0.0115091 0.00280941 -0.00558261 0.00344116 0.0373349
internal_weight=3263.68 2146.72 1116.96 1253.11 893.613 944.874 894.045 353.239 202.978 702.061 319.963 228.394 174.299 540.373
internal_count=41723 23900 17823 15916 7984 11181 10472 3597 1886 8157 3956 2975 2173 4387
is_linear=0
shrinkage=0.05


Tree=12
num_leaves=15
num_cat=0
split_feature=3 0 0 4 0 6 0 3 5 3 3 0 5 3
split_gain=285.779 170.985 100.365 58.6206 40.9948 33.9531 31.8994 27.9593 25.3504 23.2433 21.184 19.8836 21.4297 26.2468
threshold=-0.010633434291567696 0.082103215989108483 0.09358239764976313 -0.02627356696432084 0.10863218830722114 15.434850000000003 0.068839393416677441 0.013895180435588657 9.5000000000000018 0.0089759278411340893 0.040415794364244514 0.11670295025075902 3.5000000000000004 -0.028816603386936184
decision_type=2 2 2 2 2 2 2 2 2 2 2 2 2 2
left_child=2 6 -1 -3 5 10 -2 -7 9 -8 -5 12 13 -4
right_child=1 3 11 4 -6 7 8 -9 -10 -11 -12 -13 -14 -15
leaf_value=-0.030539343051617526 -0.030955089895588307 -0.018339382322147477 -0.01410364939256115 0.021634507241560942 0.041458805096785969 -0.014934994105857163 -0.0090542981788718224 0.015756670626162327 -0.020268484392134301 0.01130362794954407 0.046451640996727876 0.021479777588202891 -0.031820672742445037 0.02375717014997962
leaf_weight=775.41262967884541 116.89967391639948 82.860363319516182 95.345463931560516 531.51739491522312 269.76484233886003 102.58142545819283 256.35855105891824 236.40172298252583 163.06920286640525 297.6650028899312 105.25919299572706 93.226986892521381 52.612813480198383 79.297604843974113
leaf_count=13867 1840 1026 1375 5179 2039 1343 3569 2141 2280 3672 811 981 802 798
internal_value=-0.000118985 0.0104186 -0.0208641 0.0215287 0.0242437 0.0192973 -0.00730058 0.00638682 -0.0032568 0.00188685 0.0260667 0.00265467 -0.0053641 0.00327001
internal_weight=3258.27 2162.38 1095.9 1328.38 1245.52 975.76 833.992 338.983 717.093 554.024 636.777 320.483 227.256 174.643
internal_count=41723 23900 17823 12539 11513 9474 11361 3484 9521 7241 5990 3956 2975 2173
is_linear=0
shrinkage=0.05


Tree=13
num_leaves=15
num_cat=0
split_feature=3 0 0 0 4 4 3 3 6 5 4 0 6 5
split_gain=263.63 174.415 73.8777 52.8535 40.1399 32.8658 27.1642 23.9103 24.2725 20.663 25.2593 22.5681 16.9332 15.4966
threshold=-0.015033931024676648 0.087624680443069133 0.09358239764976313 0.075334243379933982 -0.02438873225440873 -0.043884799126144743 0.015228554698697475 0.02602800590592062 14.838350000000002 5.5000000000000009 0.0055158576333241846 0.099401647849695143 7.7050500000000008 4.5000000000000009
decision_type=2 2 2 2 2 2 2 2 2 2 2 2 2 2
left_child=2 3 -1 -2 -3 -5 9 8 -7 11 -11 -6 -9 -8
right_child=1 4 -4 5 6 7 13 12 -10 10 -12 -13 -14 -15
leaf_value=-0.031907228288502253 -0.019229542874065718 -0.014467167020370745 -0.0010367863749244444 -0.033232509406571221 0.016595710783859741 0.0037699231778251432 0.047822236085222208 0.034794513371950907 -0.023438594274245439 0.017156056779429371 -0.021949863698492444 0.050615012596497012 0.0090015344844965803 0.028114609680058845
leaf_weight=644.8404723405838 354.39285570755601 57.886921763420105 276.66055925935507 53.691638920456171 170.52835326641798 539.73404359444976 173.09772520512342 85.818992592394352 91.487923637032509 123.55023511499166 55.986870139837265 68.65266939252615 231.55884834378958 325.18675550818443
leaf_count=12042 5637 673 3471 784 1640 6754 1284 817 1281 1246 777 521 2340 2456
internal_value=-0.000125406 0.00882405 -0.0226947 -0.00277595 0.0248987 0.00310832 0.0274487 0.00532871 -0.000326829 0.0177186 0.00469695 0.0271968 0.0164074 0.0353679
internal_weight=3253.07 2331.57 921.501 1356.68 974.89 1002.29 917.003 948.6 631.222 418.718 179.537 239.181 317.378 498.284
internal_count=41723 26210 15513 17613 8597 11976 7924 11192 8035 4184 2023 2161 3157 3740
is_linear=0
shrinkage=0.05


Tree=14
num_leaves=15
num_cat=0
split_feature=3 0 0 4 0 3 5 3 4 6 5 4 0 4
split_gain=241.498 113.314 107.6 33.269 32.2397 30.0141 28.3485 24.3965 24.0662 25.2917 21.8418 20.711 20.6578 20.1343
threshold=-0.0025855734642482721 0.082103215989108483 0.086771188648299968 -0.02627356696432084 0.11783080533399558 -0.025905641575244887 9.5000000000000018 -0.017931292204992635 -0.02438873225440873 11.184650000000001 7.5000000000000009 -0.029951211508942675 0.079351244019211314 0.0059899080325305854
decision_type=2 2 2 2 2 2 2 2 2 2 2 2 2 2
left_child=2 6 7 -4 8 -5 11 -1 -3 -10 -7 -2 -9 -11
right_child=1 4 3 5 -6 10 -8 12 9 13 -12 -13 -14 -15
leaf_value=-0.035592805202226012 -0.028842235258861482 -0.011132446655598767 -0.03497485608123433 -0.0092566693194898689 0.042764856514623049 0.021410025730085065 -0.021433708218846406 -0.02848136892273392 0.02735244958730905 0.021225411613331403 -0.0099393792266649472 0.0047965945000157939 -0.0040550440022156199 -7.6764075188611358e-05
leaf_weight=446.5776239708066 45.608097314834595 64.09624770283699 55.36863025650382 233.3162193223834 148.13647955656052 237.79190427809954 174.68788542225957 189.10150519013405 511.90418440848589 222.31278442591429 68.787195041775703 473.57860231399536 159.68146016448736 216.57180871069431
leaf_count=8627 682 809 820 3511 1006 2630 2557 3296 4424 1845 981 6093 2248 2194
internal_value=-0.000126374 0.0116605 -0.0158507 0.000245531 0.0211692 0.00414532 -0.00431477 -0.0278237 0.0178228 0.0198228 0.0143295 0.00159465 -0.0175138 0.0108312
internal_weight=3247.52 1856.9 1390.62 595.264 1163.02 539.895 693.875 795.361 1014.89 950.789 306.579 519.187 348.783 438.885
internal_count=41723 19610 22113 7942 10278 7122 9332 14171 9272 8463 3611 6775 5544 4039
is_linear=0
shrinkage=0.05


Tree=15
num_leaves=15
num_cat=0
split_feature=3 0 0 0 4 3 3 6 4 5 0 0 0 3
split_gain=221.867 140.255 67.9767 45.6272 29.1209 28.6589 20.8172 21.1915 19.9057 22.074 23.7554 19.8006 17.8852 17.1303
threshold=-0.015033931024676648 0.087624680443069133 0.087969188328214362 0.075334243379933982 -0.043884799126144743 0.052104267400334157 0.02602800590592062 14.838350000000002 -0.0032314670908709163 4.5000000000000009 0.10863218830722114 0.11670295025075902 0.099401647849695143 -0.023380944151610347
decision_type=2 2 2 2 2 2 2 2 2 2 2 2 2 2
left_child=2 3 -1 -2 -5 8 7 -6 -3 12 -11 13 -10 -4
right_child=1 5 11 4 6 -7 -8 -9 9 10 -12 -13 -14 -15
leaf_value=-0.032873450653243985 -0.018190238503793296 -0.009122671282044692 -0.018422945366303511 -0.032191105972935966 0.0032603901677574886 0.038540147578337035 0.015023262708848274 -0.022448375975065622 0.021654610941384635 -0.0021525799904703997 0.022988102757128832 0.016078998044252182 0.04825138071662699 0.0088322693425647893
leaf_weight=522.00531346723437 344.88406348600984 61.91125250607729 205.47130077704787 51.368795499205589 543.85900908336043 206.28977926820517 322.77159371227026 88.867398243397474 280.57077953219414 179.16936988756061 190.77041013538837 83.221262313425541 85.726124010980129 75.937425371259451
leaf_count=10328 5637 703 3280 784 6754 1447 3157 1281 2400 1951 1487 873 609 1032
internal_value=-0.00013636 0.00788829 -0.0213861 -0.00263315 0.00275921 0.0219907 0.00479597 -0.000498139 0.0175 0.0197852 0.0109456 -0.00471859 0.0284451 -0.0110424
internal_weight=3242.82 2356.19 886.635 1351.75 1006.87 1004.44 955.498 632.726 798.148 736.237 369.94 364.63 366.297 281.409
internal_count=41723 26210 15513 17613 11976 8597 11192 8035 7150 6447 3438 5185 3009 4312
is_linear=0
shrinkage=0.05


Tree=16
num_leaves=15
num_cat=0
split_feature=3 0 0 6 4 4 0 3 6 3 3 0 0 3
split_gain=203.249 95.0482 90.9357 34.8049 30.2361 28.8754 27.672 30.3192 26.2809 22.7245 19.9254 19.1812 18.3451 17.3793
threshold=-0.0025855734642482721 0.086771188648299968 0.087472387146571948 15.479850000000001 -0.02627356696432084 -0.031436392190090902 0.13575605942684241 -0.025196935231326188 15.434850000000003 -0.017931292204992635 0.052104267400334157 0.079351244019211314 0.099401647849695143 0.039437625689120771
decision_type=2 2 2 2 2 2 2 2 2 2 2 2 2 2
left_child=1 9 3 5 -3 -2 7 -6 12 -1 -4 -11 -9 -7
right_child=2 4 10 -5 6 13 -8 8 -10 11 -12 -13 -14 -15
leaf_value=-0.034323964952828773 -0.027287210235290668 -0.034124894400133082 0.017975935457215788 -0.015324267102220599 -0.013514077588294648 0.0044715991728996691 0.041953701448484169 0.011810256649368361 -0.0090191953797844563 -0.027387352599029243 0.035988255920213562 -0.0036022366776656319 0.047056312883770463 0.023209139655384663
leaf_weight=420.06522635370493 56.179348550736904 53.284339174628258 621.64078395813704 252.7191898226738 216.47767524048686 585.08532209694386 38.636409409344196 136.23389376327395 102.45681223273277 181.85819881781936 212.5111503303051 158.30086525157094 48.549107879400253 153.22587791457772
leaf_count=8627 874 820 5157 3491 3408 7098 357 1698 1289 3296 1456 2248 370 1534
internal_value=-0.000136921 -0.0148644 0.0104881 0.000657797 0.000112137 0.00580557 0.0037568 0.000443452 0.0110138 -0.0265226 0.0227519 -0.0165309 0.0220664 0.00849027
internal_weight=3237.22 1355.86 1881.36 1047.21 595.638 794.491 542.354 503.717 287.24 760.224 834.152 340.159 184.783 738.311
internal_count=41723 22113 19610 12997 7942 9506 7122 6765 3357 14171 6613 5544 2068 8632
is_linear=0
shrinkage=0.05


Tree=17
num_leaves=15
num_cat=0
split_feature=3 0 0 4 0 0 5 3 3 0 5 5 5 3
split_gain=186.687 113.905 62.7568 37.2598 31.3343 27.8717 25.2749 28.5999 23.5457 20.3107 19.7606 16.3423 15.0348 23.3956
threshold=-0.015033931024676648 0.083222698905471112 0.08505375239963911 -0.036305404243750415 0.068839393416677441 0.11783080533399558 3.5000000000000004 0.013062622743485077 0.0061156246299896239 0.11670295025075902 9.5000000000000018 1.5000000000000002 2.5000000000000004 -0.023380944151610347
decision_type=2 2 2 2 2 2 2 2 2 2 2 2 2 2
left_child=2 4 -1 -3 -2 6 11 -8 -6 12 -10 -5 13 -4
right_child=1 3 9 5 8 -7 7 -9 10 -11 -12 -13 -14 -15
leaf_value=-0.033785058861931221 -0.029206907522177028 -0.018787468245707512 -0.015046422571683713 0.017586536177838754 -0.012599420007828635 0.035929279734667557 -0.01267338924505728 0.014192497534266739 0.0098466553986242943 0.014710936933009533 -0.011622795521300921 0.039107402337989344 -0.033849957250450931 0.017057783358855549
leaf_weight=420.02698606997728 120.10448189452291 67.78042758628726 218.55824569240212 564.5752527564764 341.64780206233263 187.87280668318272 138.99346163496375 314.93262942507863 393.48042237758636 84.70680271089077 141.94691686332226 106.22891519218683 59.665046647191048 71.471240296959877
leaf_count=8834 2070 883 3786 4933 5090 1278 1738 2558 4698 873 2027 935 1022 998
internal_value=-0.000138686 0.00706768 -0.0201158 0.0163456 -0.00579308 0.0182242 0.0151209 0.00591764 -0.00243947 -0.00666489 0.00410002 0.0212587 -0.0119772 -0.00698005
internal_weight=3231.99 2377.56 854.428 1380.38 997.18 1312.6 1124.73 453.926 877.075 434.401 535.427 670.804 349.695 290.029
internal_count=41723 26210 15513 12325 13885 11442 10164 4296 11815 6679 6725 5868 5806 4784
is_linear=0
shrinkage=0.05


end of trees

feature_importances:
speed_form_proba=94
connections_proba=82
field_size=35
market_proba=29
distance_furlongs=12

parameters:
[boosting: gbdt]
[objective: binary]
[metric: binary_logloss]
[tree_learner: serial]
[device_type: cpu]
[data_sample_strategy: bagging]
[data: ]
[valid: ]
[num_iterations: 200]
[learning_rate: 0.05]
[num_leaves: 15]
[num_threads: 0]
[seed: 19]
[deterministic: 0]
[force_col_wise: 0]
[force_row_wise: 0]
[histogram_pool_size: -1]
[max_depth: -1]
[min_data_in_leaf: 500]
[min_sum_hessian_in_leaf: 0.001]
[bagging_fraction: 1]
[pos_bagging_fraction: 1]
[neg_bagging_fraction: 1]
[bagging_freq: 0]
[bagging_seed: 15331]
[bagging_by_query: 0]
[feature_fraction: 1]
[feature_fraction_bynode: 1]
[feature_fraction_seed: 888]
[extra_trees: 0]
[extra_seed: 20869]
[early_stopping_round: 0]
[early_stopping_min_delta: 0]
[first_metric_only: 0]
[max_delta_step: 0]
[lambda_l1: 0]
[lambda_l2: 5]
[linear_lambda: 0]
[min_gain_to_split: 0]
[drop_rate: 0.1]
[max_drop: 50]
[skip_drop: 0.5]
[xgboost_dart_mode: 0]
[uniform_drop: 0]
[drop_seed: 209]
[top_rate: 0.2]
[other_rate: 0.1]
[min_data_per_group: 100]
[max_cat_threshold: 32]
[cat_l2: 10]
[cat_smooth: 10]
[max_cat_to_onehot: 4]
[top_k: 20]
[monotone_constraints: ]
[monotone_constraints_method: basic]
[monotone_penalty: 0]
[feature_contri: ]
[forcedsplits_filename: ]
[refit_decay_rate: 0.9]
[cegb_tradeoff: 1]
[cegb_penalty_split: 0]
[cegb_penalty_feature_lazy: ]
[cegb_penalty_feature_coupled: ]
[path_smooth: 0]
[interaction_constraints: ]
[verbosity: -1]
[saved_feature_importance_type: 0]
[use_quantized_grad: 0]
[num_grad_quant_bins: 4]
[quant_train_renew_leaf: 0]
[stochastic_rounding: 1]
[linear_tree: 0]
[max_bin: 255]
[max_bin_by_feature: ]
[min_data_in_bin: 3]
[bin_construct_sample_cnt: 200000]
[data_random_seed: 100]
[is_enable_sparse: 1]
[enable_bundle: 1]
[use_missing: 1]
[zero_as_missing: 0]
[feature_pre_filter: 1]
[pre_partition: 0]
[two_round: 0]
[header: 0]
[label_column: ]
[weight_column: ]
[group_column: ]
[ignore_column: ]
[categorical_feature: ]
[forcedbins_filename: ]
[precise_float_parser: 0]
[parser_config_file: ]
[objective_seed: 8224]
[num_class: 1]
[is_unbalance: 0]
[scale_pos_weight: 1]
[sigmoid: 1]
[boost_from_average: 1]
[reg_sqrt: 0]
[alpha: 0.9]
[fair_c: 1]
[poisson_max_delta_step: 0.7]
[tweedie_variance_power: 1.5]
[lambdarank_truncation_level: 30]
[lambdarank_norm: 1]
[label_gain: ]
[lambdarank_position_bias_regularization: 0]
[eval_at: ]
[multi_error_top_k: 1]
[auc_mu_weights: ]
[num_machines: 1]
[local_listen_port: 12400]
[time_out: 120]
[machine_list_filename: ]
[machines: ]
[gpu_platform_id: -1]
[gpu_device_id: -1]
[gpu_use_dp: 0]
[num_gpu: 1]

end of parameters

pandas_categorical:[]
